{"kind": "aimghost-mlp", "act": "tanh", "norm": {"d_scale": 25.132652798795334, "p_scale": 1000.0, "history": 5, "dt_ms": 10.0}, "W1": [[0.004681308503063227, 0.13546560489934314, 0.24489735671075208, -0.13098083091924778, -0.021808775255930606, 0.14015957925282704, -0.33124602827925026, 0.20595005328210667, 0.09515639521678634, -0.0678184087385445, -0.09515588823644666, -0.19725637861844778, -0.2049306756810975, -0.02033671898293432, 0.04801085620269872, -0.0462672017494564, 0.24013665711823776, 0.06712099271081547, 0.011319553941695244, 0.24326464498393516, -0.050627704478241324, -0.258680881462244, 0.007737176701962722, -0.23607116823068963, -0.2084804090788629, 0.05719732701733005, 0.007068831663300286, 0.13003343916996793, -0.014477269966437695, 0.05695635432436064, 0.06825687209891307, -0.17070960576337657, -0.24833349352767117, -0.15804987572129253, 0.09808451190508134, -0.0529880208788784, -0.028332170490646173, -0.3183546925503695, 0.2695806794018952, -0.2463173111937994, -0.1913642517349255, 0.10102302655359784, 0.04798214179555622, 0.16405095115671622, 0.013578798855850087, 0.056944502574676606, -0.21188645302123565, -0.03059130159330157, 0.06154220299062917, 0.2741966237254139, -0.04035336749634247, 0.1360671778538868, -0.18811934342337688, -0.07498583585040922, -0.13701598358996434, -0.12264596050216363, 0.08303299891928613, 0.005897938893151443, 0.31398404726696816, 0.1086407460752023, -0.005957958691283253, 0.11065380766474037, 0.1329259008290503, -0.15024827089955325], [-0.003186733866106103, -0.18625124509585414, -0.09405816996094009, -0.20317877632798775, 0.2216333370457202, -0.14037486453773443, 0.08767021207264004, -0.11406854215372152, 0.24371440909636125, 0.10091678134110446, -0.19697928454825833, 0.2051414951307916, 0.25674022354854703, 0.24433219841335704, 0.04556702958475342, -0.2328565268455524, -0.1851802002314153, 0.26921039383060513, 0.001974092927724369, -0.18604745407737106, 0.17470646992932842, 0.10655835367545022, 0.02284677628516237, -0.08884740837983374, -0.042286690474480644, -0.1335748874915183, -0.2329794905654818, 0.2756873234618674, -0.05790638452320473, 0.060581004064298644, -0.09460568346238862, 0.12350432147672825, -0.26941219741353, -0.05899808804472573, -0.3059438414596126, -0.2566005729776084, 0.2907860019985896, 0.11288829578146718, -0.06153014556731376, 0.0359775933466923, 0.2255217619118306, -0.029476885101379722, 0.051795596968726196, 0.10582141385619398, -0.11122029610865304, 0.04741702898464319, 0.11207088879201439, 0.24960321045678563, -0.17774104378363878, 0.22124171558744424, -0.23953115224757263, 0.16680643555431426, 0.162976569700043, -0.15005843643691824, -0.03740580695941361, 0.13924390607470727, -0.2686443246819233, 0.05636296053499364, 0.19256694162403362, 0.020030475818483273, 0.13833310469566817, -0.14433085399212087, -0.1374068224049465, -0.09934544864020513], [-0.26368447030325814, -0.17392901017499013, 0.35955598042030384, 0.03609330806220345, 0.005606212438345339, -0.21079931488667109, 0.26138677681156147, -0.053231942304980774, 0.2359386841910722, -0.002303048419854948, -0.005156917311516899, 0.1575239649070993, 0.09824472429435216, 0.016393268891926507, -0.03329251266283995, 0.14644452177916398, -0.05780218028590315, 0.1127099608542259, -0.31906733738372256, -0.028037774006311994, 0.061929561119141274, 0.1696230383861543, -0.17498563917346777, 0.17059550333023898, 0.145165776128868, 0.12411794683348742, 0.06208175251521784, 0.17541112657966212, -0.19224253846222375, -0.02375291249410752, -0.10683789857298383, -0.23714684753874501, -0.17268075361923108, 0.21028985003000358, 0.20614041016385615, -0.0718385336988086, 0.0638293577173127, -0.0028506784763153523, 0.09312801216981265, 0.041075464007451434, -0.17194408110025947, 0.17728216228805557, -0.0016722355223620093, 0.08608772268370217, -0.01475845919736315, -0.2716086246269734, -0.2068109303574406, -0.10507641820820934, 0.20872507458997425, 0.2119390699270326, 0.12469490595519747, -0.11352081245026141, 0.2935127631420248, 0.1552883702279142, 0.1986944695317867, 0.09215117253203212, 0.14757893829116286, -0.17188379598393308, -0.24468725294870827, -0.2550586809024707, -0.2001979431144868, -0.15133731835874206, -0.1768802282291162, 0.047975898165146365], [-0.24604699047678336, -0.018287738592569693, -0.21426043058803473, 0.12341244638302751, -0.301458098116258, -0.10501136830116553, 0.2164041946552118, 0.0420593796524362, 0.19078142402645248, 0.07743858469917755, 0.07553694649166562, -0.18049663579536, 0.015233256315563808, -0.23084843199272337, 0.20990034434777713, 0.20806859347332957, 0.16953623055270592, -0.258793383679905, -0.14710563008173494, -0.1268431149608066, -0.24584281553285092, 0.07412967252470382, 0.12571936859021463, -0.10543895120088156, 0.2270904351257058, 0.21519152580342205, -0.18661093416129998, 0.19533345267550223, 0.14181778527565606, -0.10065586644939208, 0.09026574690760278, 0.034006339474073506, 0.08341310194477473, -0.19556071034805012, 0.05271961406357067, 0.04855851647269602, 0.23128537610064046, 0.16068170697981485, -0.07320872983471338, 0.13709901197025046, 0.22036599999326653, 0.25199786888885234, -0.16802122067292555, -0.2826469946800688, 0.041235853536541994, -0.13705144140320813, -0.006243412150019893, 0.2565419924279327, -0.04478166495540596, -0.1346015287151036, 0.01752855028219383, 0.1344080575715912, -0.21745992509696266, -0.004825947074698649, -0.21616553356934448, 0.05987139091060759, 0.15764318268842428, -0.047363712341405816, -0.014955761008128881, 0.0549156411026228, -0.17149030578545107, -0.11014701677791956, -0.05377199828837606, -0.030332299286306305], [-0.33218984782551575, 0.10722023702925364, 0.10334503480404758, -0.14836441793097227, -0.14997337378748724, 0.08147260338731376, -0.15315265915893914, -0.2639223658079047, -0.20240610104570086, -0.21515132886518737, 0.17607095878450418, -0.1472955681781335, -0.10318937667242327, 0.1292845061932467, 0.058478592664263224, -0.2051966674961016, -0.010190453932220908, 0.1858864535053626, -0.11264585457429217, 0.17586728354345282, -0.2218229538412028, 0.04940159195734444, 0.16909149947990176, 0.15172061468823672, 0.09392318558466885, -0.10956901656312121, -0.2889020748045404, 0.005566255067493266, 0.07244390320306332, -0.19738506595703298, -0.14580308339713513, 0.06023846270080212, 0.10519499921890524, 0.16897778525074195, -0.1712091358550216, -0.09146399245193654, 0.1352900072032451, 0.12637048047145427, 0.10956659749407484, 0.2556553869602934, 0.1823514110458859, 0.20188058211799914, 0.1386480665133034, -0.0020926476554339745, 0.025098966284258076, -0.2727253658296019, 0.2091105860909257, 0.1244241826484201, 0.1342632303681909, -0.036386128358579656, -0.14210641253595896, 0.045825934519600146, -0.21155939223437153, 0.1269621862080042, 0.05227067867731403, -0.020626630217094426, 0.030129503400941896, 0.13008604058781806, -0.09863616059479918, 0.1515800693922941, 0.162504697070272, -0.11024517394582939, -0.23739750797910655, 0.12818400028702154], [0.3267541458460384, -0.19592032091874317, 0.08592944058835335, 0.1453015259060609, 0.17243253661266872, -0.18305218451039698, -0.2511880509772332, 0.30458564875936117, -0.22272723537458308, -0.1836555271274201, 0.008071626249155322, -0.03302852570247142, 0.13929812188115476, -0.16933664923661743, 0.2673411000232966, -0.1490695565606711, 0.1409522345716844, -0.21282762744290443, -0.017243464366404997, -0.28700492806066463, -0.11857445751359456, -0.06949614251069014, 0.10856610920314591, -0.006764345561910364, -0.2989838202560114, 0.2805269384462507, 0.17340851198737547, 0.2936556871693813, -0.1539899076578496, -0.03795642437320892, -0.14530253004999533, -0.22880201253131732, -0.23105323391863516, -0.013277604852733126, -0.18892867860590698, -0.2363121240511722, 0.23662250516530217, -0.03808939276968846, -0.1612505114967764, 0.11034345093268558, -0.10785850270030928, 0.04580937041331862, -0.1622946368545879, -0.011173209840512753, 0.09037506198409195, 0.0509332887720822, -0.04178007710495374, 0.17263042843256676, 0.17018568183542593, -0.1862488301350236, -0.21307917677284594, -0.25209519472794983, 0.24394485045360975, 0.2876148652661557, -0.18394978056831757, 0.22487036365421106, -0.1381726950586019, -0.008789551441045795, 0.0175226042366426, 0.20119836822779966, -0.2642727281708471, -0.06594545063304637, 0.020899683815737, -0.2722789828703088], [-0.2392802408815535, -0.03148647210116363, 0.18829050469235847, 0.10325998462759764, 0.2578151940189939, 0.11913419879823897, 0.17807146231374998, 0.12804752838502714, 0.11836053739577315, 0.1527563646052362, -0.15616976010720202, -0.16543971728624188, 0.16169308585147393, -0.2388110980603476, 0.21249986666731993, 0.014109858880137762, -0.06686646046551817, 0.2709487855429339, -0.21387583230183677, 0.07768525627530413, -0.2566848030225244, 0.17347002360244335, 0.057299396859805736, 0.12670200223717376, -0.11259375899607521, 0.1221011581579365, 0.06032471391347625, 0.09809304496481029, 0.158525949000523, -0.07610979821680922, -0.08267080573656607, 0.14306062153439475, 0.14174861889908966, -0.14756178262566466, 0.13979304835264808, -0.14316137958619735, -0.011600204331698291, 0.2059656240301602, -0.27530140674729275, 0.11527450054481636, -0.31645158484527225, 0.2978429275380316, -0.030310214027464238, 0.01485862434540288, 0.0514426669835603, -0.021825134826189273, 0.17910083379759864, -0.20715832028911088, 0.025693011405257284, 0.017784093338856943, 0.15958158774726716, -0.13894187037127895, -0.010092312274166666, 0.013495169995868707, 0.0763892177554661, -0.2318216271739526, 0.08426599892296438, -0.1721988511007013, -0.21001682673858602, 0.17509747907106313, -0.2330926549585598, -0.08275936508431593, 0.09897319777593418, 0.09823051173898714], [0.05563852351507511, 0.17988716024407203, -0.010895702390987406, 0.009038002462274083, 0.1666580210651671, 0.08469394487396985, 0.03695176611594529, 0.008036026478821175, -0.01213563849412228, -0.08299197047847282, 0.08419705696319021, -0.10086075473798589, -0.040895400844897185, 0.157180556742464, 0.07254479631040903, -0.06750460480507264, 0.17469269427474415, -0.07484371799392477, 0.21216696633501939, 0.10876471893637799, -0.014422571458497364, 0.13370931719058096, -0.2938888287850083, -0.0006311874347015268, 0.14144709787734697, 0.050640067815863034, -0.033878988623514066, 0.1520924876930266, 0.1041406487924038, 0.05924156376512328, -0.03376207844656377, -0.2007045219711158, -0.05722497337865059, -0.1492988803257771, 0.025015929447340955, 0.26263115594294345, -0.04230505799302883, -0.09335227466901506, -0.012804674888806086, 0.03756648188083964, 0.25025686307475337, 0.20979718769092512, -0.1186186170944707, -0.17839434881545857, 0.26386295721639086, -0.004372640319714513, 0.16678469340855553, -0.2665314427092748, 0.14279733662683594, -0.07907518466619126, -0.02320097753885781, -0.21684809892350101, -0.025538905386237043, 0.1717209073528251, 0.1203466590340329, -0.0035414550071842343, 0.16987214107334092, -0.020201180901911208, -0.05602909148534704, -0.014040721092725746, -0.22064996694690656, -0.035538649009818256, 0.055142566983979006, 0.13982263729940198], [-0.2271910396054358, 0.16325807565513814, 0.11208116797138161, -0.08351761813280517, -0.2398480270148206, 0.1415050621871702, -0.06537341096617319, -0.00358987562271483, -0.02931662650428287, 0.12081471907922613, -0.19339013277667866, 0.04276456588105735, 0.06038971604657701, 0.008000637328427282, -0.2152189037507677, 0.2666642486824866, -0.06518684918871578, -0.047431864519329854, -0.09288623118487364, -0.16005970389310484, -0.10094432385233443, 0.17091692080479828, 0.16577763509447402, -0.23425168695989798, -0.23709241061004002, -0.16708370709077947, 0.07940171047841983, 0.050216988572800395, 0.19928851092197006, 0.025398424337108216, 0.002983617077013655, 0.20254072859416244, 0.07889385031372657, -0.15485366732343459, -0.08799036610202608, -0.07819537963124469, -0.06528768493774309, -0.12774825495367684, -0.09376774102477073, 0.1251631240417617, -0.1683627614105734, -0.1410569011988317, -0.22293119001488473, -0.04338647643341948, 0.2027567207192902, -0.22861345398684227, -0.1279923314961645, -0.12163066861754701, -0.05054774852884645, -0.31228804680159483, -0.12130740418560028, -0.0904253242642078, -0.1621902217163832, 0.13765440867539885, -0.11144476269309281, 0.02813190559950625, 0.004684154200990914, -0.10098814385307425, 0.11269551499125267, -0.2461250600509295, 0.21198465244474599, 0.14084332819017412, 0.04156432391483054, -0.2908076334453268], [0.11721428034054342, 0.09850712852900972, 0.18878344619816173, -0.2411331201326301, 0.28306184927722844, 0.17487125691858926, -0.27784198019102585, -0.018388939279329324, -0.33907155208206785, 0.1357660668595376, 0.1736779290030908, 0.21700226918219795, 0.031522697190120005, 0.12244548095072366, 0.20021210814959534, 0.07317288281850944, 0.22628973243481118, 0.04287517787986254, -0.024873138536229297, -0.05796395496507702, -0.2258687661277477, 0.10032103980590258, 0.06142815621586859, 0.04337346809764135, 0.13832106903455155, 0.12590779660688908, -0.17847511870493826, -0.18292912207946627, -0.17170475099918717, -0.19900208868450528, -0.11997195299285766, -0.06832400315160354, 0.3253711122192604, -0.1789162868197992, 0.31295643059982386, 0.10698828020331819, 0.23438630083298284, -0.14394401901911658, -0.19874235091611303, 0.11676257725055544, -0.1634022499078762, -0.23182361345466043, 0.11229285640814794, 0.04159164160758241, -0.08250652131260622, -0.1540476786954366, 0.34474675867989524, -0.1811498117893892, 0.02816622497518132, -0.1603409272255, 0.14053826154245336, -0.27899011481090313, 0.05083972556749447, -0.3225907428344874, -0.058075873073220124, 0.24491077071298503, -0.19809444290654923, -0.11893147112337385, 0.14713940208146162, 0.006671656050597084, -0.1935284495794956, 0.16601946731332118, -0.11061329964485306, 0.2138837760680447], [-0.12599600529512875, 0.15275009024092454, 0.051316220697066275, 0.0833113744288302, -0.0640284621573057, 0.14412353603951505, 0.16632568731445502, -0.12032343716897485, -0.23087136519882145, 0.29253185049522, 0.08964469011179067, -0.1291831068480592, 0.16498495654655684, -0.1711589040572592, -0.05357529409971139, 0.18327731911783532, 0.006136010699732334, -0.08999424856100946, -0.14436944941434876, -0.18372355404610244, -0.18533112024171214, -0.12525614709713426, -0.15625762473494925, -0.2826356858410857, 0.007800826446882423, -0.2021207730451546, 0.0666400852943259, 0.25849885173655623, -0.18973567413199424, -0.01201034635379193, -0.04404379930183008, -0.21068283840585403, -0.25561407857240975, 0.15890029961909388, 0.03495593310480516, 0.15456837712204538, -0.2928404166384322, 0.1039415232127125, 0.15435025130080487, 0.21883109763574468, -0.2590147659343694, 0.046119275032086446, -0.09607890890452161, 0.20173019365868014, -0.2983443177280156, -0.11779475876030912, 0.15473499010029673, 0.01702966225162989, -0.011944653750464886, 0.22940035221992652, -0.169235734926222, -0.1736519522819237, -0.07589156177872113, -0.1749862558852047, -0.18859770922045513, 0.01238553654874427, 0.2894543751027225, 0.020064205889331256, 0.026478542713802157, -0.14618788029749696, 0.048149137312839846, 0.08995084981732607, -0.0028675429237783974, 0.1425282437872665], [-0.01398890731021738, -0.2545617380919953, 0.016960827480884434, -0.0050319369820930795, -0.16705961393782146, 0.017781532842178486, 0.16447595207110033, -0.1835043081933328, 0.01962488653395358, 0.10266963854792455, -0.052426813440939954, -0.14808003494463667, -0.10844685365725211, 0.021511802172447147, 0.13398939567377524, -0.05224458305546806, -0.21681196290941468, 0.14420493014225536, 0.11994924735495675, -0.25512104519881523, -0.20036988003221395, -0.2621446444779392, 0.1432720119322401, 0.26383498966532626, -0.20287690779780812, -0.09229316319098135, -0.19027612412003195, -0.03328051904235823, 0.11218124654059726, -0.19504790832178193, -0.12822598241661265, -0.017827379975323483, 0.030406683318674778, 0.155444465759943, -0.008037940740931447, -0.1816350530544968, -0.07337348130728467, 0.22886430612145975, 0.19667980726217194, -0.206300670938272, 0.21199954240261887, -0.1130549742366095, 0.19172783996373993, -0.2850097585445687, 0.11384266958118168, -0.1981960852963942, -0.0553219747777428, 0.0761119694910896, 0.04960745237216967, -0.12861505670192763, -0.20309641364636644, 0.0009856941736334582, -0.2093426631443786, -0.08487518429351547, -0.24313687825109329, -0.01814162958047735, -0.09124417733551392, 0.10844211239005888, -0.09809064466162544, -0.258577472515124, -0.11028664507293702, 0.17280631908577285, -0.1478240417857651, -0.043851000473660404]], "b1": [0.027697092347670062, 0.023610592571188253, -0.016709985647140352, 0.035555141265147486, 0.04747983632457836, 0.007716416880667466, -0.00735876751181166, 0.0024760494832883713, -0.0022464457577295637, 0.01446259619218982, 0.024204671297280125, -0.011840187655997932, 0.017072331362585864, 0.015437336837532591, 0.002390764165015576, 0.03655597981170069, -0.006695595229763451, 0.002495025591758072, 0.03608440457573477, -0.015403949656770005, -0.0009849886702043642, 0.01145075772566525, 0.009472758227103488, -0.0020980910582174034, -0.03510047183029411, -0.005217551206105113, 0.022742003219893697, 0.03261002236222601, 0.03490210257511464, 0.009130078423138703, 0.0035925887160941196, 0.02266646117694069, -0.016427109988908364, 0.027004401729065045, -0.023014543024698925, 0.00021403853284580795, 0.0006024688966655752, 0.00038575982399836764, -0.008352590486325117, 0.016387183473111928, -0.0018573066896157991, 0.0014190853986966847, -0.02163022795421801, -0.022264155332985272, 0.012962920823351995, 0.015157945291467367, 0.0008154906166566129, 0.009948301116490975, 0.01803185823592372, -0.011203834926549045, 0.024869513942299283, -0.04741132275204397, 0.003423236120771597, -0.01895923670029355, 0.002084392441183338, 0.03652506152636622, 0.0058163272267572255, -0.014536728310598953, 0.022691498401142124, 0.006847416960617717, -0.015225029753323792, -0.0026683543734701593, 0.031226448876951387, 0.019840760764233054], "W2": [[0.12657198977866702, -0.0410733293598449], [0.2923391508606574, 0.2643222233058605], [-0.08893563609947501, 0.14482248955479318], [-0.13505193466496285, -0.28114921321426056], [-0.08706126772545661, 0.10899084144071612], [0.31580581254057133, -0.19553062073773161], [0.12091854142745119, -0.10566898873486634], [-0.20562395289779775, 0.25303566941406247], [0.07124815957761126, -0.3062652828205226], [0.30840695378010935, -0.25954443138781214], [-0.3186770196273181, -0.04244040930749219], [0.21055781450580913, -0.22954818823927148], [0.33592472808967705, 0.06581455527166825], [-0.3026719578284762, 0.11433480755004667], [-0.09362463931828244, 0.10623079490745738], [0.19629920342283524, 0.08046789009844149], [0.23530622408660903, -0.148827551281631], [0.20263933132429876, -0.0410856655565428], [0.13526839793309609, 0.2490423616016349], [0.21718988714868068, -0.07700619329157943], [-0.06520220195873198, 0.27378721480367635], [0.32829305533562425, -0.08201429126652077], [0.3426725385389084, -0.06611525417163307], [-0.11014752224960277, 0.2296458867993312], [-0.0781738958623233, 0.006533867965554891], [-0.14437622741455475, 0.010790570519753512], [-0.1615510787215306, -0.3241246552559458], [0.19253629702537683, 0.0030358116946919748], [0.1627261365019475, 0.16265283916168588], [-0.1861264907695028, -0.2152670976539184], [-0.16810799669908608, -0.15340688048312318], [0.23873391006230535, -0.10945154024618606], [-0.039546810736045476, 0.12516502326122872], [-0.19361051207489763, -0.28727543899128666], [0.034031632425232536, 0.25376300236438837], [-0.1567271501720776, 0.10318674607176259], [-0.3283653218937818, 0.006492612213746251], [0.07569220576510995, -0.18366863675722342], [-0.1825726150313519, 0.004266048873269189], [0.11718002484716476, -0.21560232705904395], [0.0852769670217316, -0.23814609531736725], [0.2833099257993589, -0.18229612218146163], [-0.23252735587945378, -0.12935780448626094], [0.2345164132102974, -0.1526634917501107], [0.12649441737117015, 0.27601584284411895], [0.2258925475170727, -0.2510565280004321], [0.02732630677590472, 0.15625597536121003], [0.07027034868771095, -0.10957955544945909], [-0.100118678682072, -0.2418485817586171], [-0.3755966843385553, -0.031147792013420654], [-0.24367230879946453, -0.1308820298854125], [-0.15202643742325003, -0.2640655345492825], [-0.3395316433248517, 0.26817410796309527], [0.013828248592369814, -0.19647602917036708], [0.060545747464874795, -0.22673983344397972], [-0.18964239510644812, 0.295139672582996], [0.2588846088223828, 0.057715070861084745], [-0.2931689268455775, -0.11743228710768099], [-0.3416702003993851, -0.1862983290712359], [-0.35783243250095775, -0.17327621493714657], [0.14841080032547496, -0.2928559975718649], [-0.15201673312516048, 0.22630988804271937], [-0.06242080108406337, -0.1413826079683661], [-0.3248404616828697, 0.25891238972221553]], "b2": [-0.021586143720502143, -0.015470796763697064]}