{"kind": "aimghost-mlp", "act": "tanh", "norm": {"d_scale": 24.664092632689606, "p_scale": 1000.0, "history": 5, "dt_ms": 10.0, "frame": "target", "reaction_ms_median": 210.0, "reaction_ms_std": 115.1078902112661, "cap_abs": 3.0, "out_scale": 0.9500000000000004}, "W1": [[0.0063888262302945606, 0.20405059423529925, 0.10624201578521175, -0.1367529187461484, -0.004310454016823509, 0.22987312268294502, -0.285411103318948, 0.17951410858100497, 0.13583716697199216, 0.027703372707384603, -0.13671673920336516, -0.10239399458346131, -0.1552838295840435, -0.0820883985884273, 0.027253384232004706, 0.03148048413341366, 0.3534370141984527, 0.04100169187594483, 0.1442661200611465, 0.2497663130198251, -0.19310545953909225, -0.20273536487329524, 0.08360620153114182, -0.21696299420014534, -0.31544011717751763, 0.028853692243932874, -0.03425624439675943, 0.30269198038839157, 0.07161919086583604, 0.016944721459039316, 0.04083096886945851, -0.17172680680283095, -0.2857160258875296, -0.15711577868689594, 0.11053271361291336, -0.16115141395362845, -0.09396061927309958, -0.3170464260807018, 0.17051359853036357, -0.2283192988022393, -0.11841557829453762, 0.26846474872003756, 0.01842312785976649, 0.14292844619847647, 0.041151462157525104, 0.1837099636264842, -0.10709991461681263, 0.019411815913060865, -0.04026778998888412, 0.18396841454510066, -0.06875457605161255, 0.07500484747727747, -0.20787025970292716, -0.09616201813296843, -0.10204971267663364, -0.11301052372292081, 0.09405655660543052, -0.027870172891886633, 0.26676710952519744, 0.05523592145056527, 0.00837999274543528, 0.06284691476081927, 0.08922466121428883, -0.1694991874261247], [-0.028542670316222696, -0.09615127819262129, 0.0002906855399339719, -0.24850626444030144, 0.2074155357139502, -0.14505088437717792, 0.1120971385472977, -0.0931531036368172, 0.2156254064960615, 0.08876417403660752, -0.2787783007986655, 0.2219441674263369, 0.23462229142152738, 0.2379130241414607, 0.08605289334560044, -0.22014002044300318, -0.2962737663130744, 0.2945962712886359, 0.027213638330380756, -0.12477734567004294, 0.2949163144405131, 0.07166317200828327, 0.06560669922967767, -0.08421646758235689, -0.02975367031799939, -0.17860525170551075, -0.32743591584357623, 0.10748990426329111, -0.006689932694749416, 0.0868620648795412, -0.10489753818156415, 0.16285257888223095, -0.23766687893843946, -0.07016409751008307, -0.2806786920708428, -0.23538687264081576, 0.1573870811946116, 0.11885675089966141, 0.05154216178250686, -0.046135818904481915, 0.23685264795215683, -0.10650850175041914, -0.01693356623796943, 0.18707980901517807, 0.008832156814922217, -0.03924709711622387, 0.04931603722381814, 0.27929906482750216, -0.1694244930345341, 0.3492426453906487, -0.26783503142716714, 0.12487611032753156, 0.14043666329671461, -0.17060969097263703, 0.020075441353275433, 0.05053733750032968, -0.24444316435897487, -0.0035857748042289446, 0.14592154467534058, 0.0009183504671821284, 0.1109082774255657, -0.12503935932951316, -0.2299078695773174, -0.0667584156765983], [-0.18261029962980926, -0.1395130560284639, 0.27362507738830405, 0.07587496264171896, -0.04784622639983248, -0.04969202258138907, 0.25313502892338685, -0.0447762081635232, 0.21917121793807867, 0.055644441085047104, -0.00183388939562252, 0.23288106314274734, 0.11262840413878511, -8.10230046172661e-05, -0.009631481883580394, 0.27257086107427214, -0.020649489120816204, 0.24161602068880048, -0.1681815243088345, -0.024740645527327874, -0.015810140192254324, 0.22189853382598454, -0.12262562519019368, 0.1723303801250952, 0.11002600849138836, 0.13857952905774534, 0.053050684826320055, 0.29967848976487665, -0.029400836874649346, 0.0023461052469674055, -0.13914096613870608, -0.2826388275921192, -0.16820160303913972, 0.22247855453068555, 0.19279929059355566, -0.07557248533481825, 0.005704508070843813, 0.004853874571003421, 0.0519554116874402, 0.03761070712791403, -0.08427474758356868, 0.2751084017161113, 0.009396279731372512, 0.05800827931050877, 0.002641830557452536, -0.11830430247179885, -0.17207403870508187, -0.0992442706096737, 0.09723925867678374, 0.1812508276391866, 0.07327576873854552, -0.24209283654860497, 0.23016540445655703, 0.08773214329238907, 0.229983752189862, 0.09115428921708865, 0.1970911158212235, -0.1491289356528788, -0.25038359524918363, -0.2644845474863628, -0.23238939486222404, -0.1475580020597705, -0.18534812257600006, 0.07205748677067815], [-0.2657283337433626, 0.05656486151325743, -0.11209479750147984, 0.050792245963855696, -0.3205563490077196, -0.1026651507043452, 0.2756269206210889, 0.019336660322065956, 0.23958605992086876, 0.04544891996889884, 0.010197537860454318, -0.15901232963244585, 0.0476235855309035, -0.22098058039315974, 0.18371862503224948, 0.20807818853320653, 0.09375684757520632, -0.22647648450204194, -0.051665220350418525, -0.06837936949658936, -0.14788452752640416, 0.01711528957523567, 0.1464658360816084, -0.026820411787329006, 0.1918549596143211, 0.1867454592743803, -0.23483914298283137, 0.08922236675569735, 0.20495604694487507, -0.10085840545001484, 0.0860037444633941, 0.12418808460675704, 0.06065886593933717, -0.2499361800144946, 0.1333926768344168, 0.020001976499165804, 0.10051176842845354, 0.11531365927521635, -0.0016691691210223463, 0.08143735529174341, 0.26703337281703104, 0.16993043857994852, -0.23004336374598586, -0.23659370274088332, 0.1333583154012654, -0.16713437515523805, -0.004248537202192385, 0.3079297275741116, -0.0650618001818376, -0.05811994178433865, 0.003150655111486966, 0.0686255140866992, -0.22892777528384278, -0.08294824291197972, -0.18866563111543905, -0.03731822280862869, 0.19510638981109127, -0.09499834662483524, -0.11009594220108189, -0.011643773865011713, -0.20297699090803828, -0.08792329454611784, -0.13683600888053396, -0.045505624639182875], [-0.3021830195342431, 0.05119070723574601, 0.11957703040862425, -0.09412655192131802, -0.13298616304519958, 0.23625916331397845, -0.2060323381128666, -0.24498156975489746, -0.23992445849732041, -0.22405147572709508, 0.24392048731628715, -0.07752299062624471, -0.15354861749688792, 0.1511871985425969, 0.09481615755768158, -0.06969267996596111, 0.05092765722002976, 0.20276016068585534, 0.0701192862952778, 0.15482310638618926, -0.22388789039592333, 0.046996321445316035, 0.13317753519814401, 0.19665652099304493, 0.11415022775858286, -0.06107772355674675, -0.2981038134967668, -0.019763125790772815, 0.29446675206609074, -0.15606788249580902, -0.13179630440286036, -0.03284179501820666, 0.1052762769525504, 0.22513704441761476, -0.1921375735204775, -0.008732831684944386, 0.14523611009671028, 0.10047331099595243, 0.15533973624219405, 0.2516997492553019, 0.18702889643716386, 0.1891556476025227, 0.20015816951649903, -0.03398166834815538, -0.06291373100824027, -0.06485913482607042, 0.22395505758592896, 0.07902189818182483, 0.10633843587707022, 0.007430355336951742, -0.1468254452529863, -0.13954832066873088, -0.17788776259386452, 0.06500356658832193, 0.07248647687942249, 0.04656821365045974, -0.031924477242421, 0.23236412171535215, -0.07241886452829813, 0.20866375310808363, 0.1171752458855066, -0.10501191456894957, -0.23775347300731273, 0.19296202899319181], [0.3032097439126255, -0.15973759266979148, 0.19452791302760677, 0.12207480826090406, 0.12510766201278842, -0.19214072264953147, -0.20071189314079177, 0.2712210708963097, -0.1369001045625769, -0.2256031224195979, -0.006904529248237299, -0.01612323312440734, 0.1794230042979964, -0.1321902341999472, 0.2447226579659322, -0.24098641974698018, -0.007944796091551734, -0.201831524377849, 0.023450282628230013, -0.24617121846206544, -0.02437817542520625, -0.15942588412594094, 0.10553201866239632, 0.05381088004358251, -0.25922643995800443, 0.3208865281831584, 0.23253569261983714, 0.2311109338248632, -0.20629364058547975, 0.02884858058979281, -0.0792348252867603, -0.14606352787768156, -0.254538955349815, -0.04918205158041389, -0.18103951676742233, -0.22277617111747539, 0.06720906737978358, -0.062008920537695016, -0.0759183103866981, 0.03486467709052278, 0.00880285579287909, -0.008623922147897289, -0.16230450133660285, 0.017960810028606587, 0.10502118187231005, 0.004985479769747416, -0.10094184624425379, 0.20591776680128357, 0.2093154502006566, -0.09907714336721847, -0.1830421660322521, -0.20446208432520918, 0.25130719179618477, 0.2430494045470927, -0.16103147427412723, 0.11060831585884848, -0.1440860167702371, 0.012093826410456329, -0.051839134606952046, 0.17541225680149805, -0.36574245914507036, -0.012803651423706056, 0.030035569614626542, -0.28511091695344143], [-0.2599982219377559, -0.03435552682264031, 0.21328653608221862, 0.16309671530910425, 0.30359295482763493, 0.21955783660843753, 0.08068403529108607, 0.19321338719649017, 0.054841742367038544, 0.1304246301876955, -0.11672478966780417, -0.06499959751861308, 0.06555105560604615, -0.22865370345455627, 0.2782617503415526, 0.14165196837918936, -0.015766484892690304, 0.1786711019523004, -0.0032061628211462827, 0.06783520291184308, -0.16643183182899424, 0.20099788252027223, 0.02571845511227214, 0.14399307801504735, -0.12334479191415738, 0.13697657790146225, 0.01840720039398021, -0.021134840439506614, 0.42157036010071974, -0.07779990544485885, -0.08082777890047868, 0.0208274228861999, 0.16831926008392445, -0.04731183320058141, 0.11441542928879274, -0.1092329600646216, -0.029817534262675263, 0.21007819823239685, -0.17889810224108108, 0.10290302681933519, -0.3650729697120884, 0.30489762406772597, 0.004142240836203542, 0.01476939023844045, 0.026156464154142814, 0.11998553708702639, 0.12298464242226415, -0.2584181830037158, 0.062439223340085774, 0.11059812117664213, 0.22664009375340763, -0.3168900571648765, 0.031528468499011336, -0.009287162552068315, 0.11701800569408179, -0.20935785345040525, -0.04787302166263561, -0.1338082671524521, -0.2152513654858036, 0.2634558461653937, -0.2177887639697543, -0.1207973010296035, 0.07444980543353247, 0.18666837283429324], [0.06823598277952464, 0.21146632659837042, 0.0685223198426162, 0.023952825376246906, 0.14955329158298103, 0.08609182651968782, 0.11233842405503747, 0.017380928896610737, 0.131879011211888, -0.10037559746736582, 0.015640027833234947, -0.032946626551812845, 0.0048757452257420075, 0.15114110513678086, -0.035365415152948804, -0.22978699043395706, 0.10169260957569057, -0.06424128724090655, 0.2371983837623931, 0.11642318493637661, -0.0225583440562738, 0.06318159175107661, -0.2958379987587948, 0.027121832401829426, 0.18574710660232463, 0.06413457123096764, -0.030878354209489166, 0.10553518620445773, -0.0006909361726008391, 0.017028430606955577, 0.05427830023288459, -0.17279311100727054, -0.11678649754590577, -0.09742063784411079, -0.0036414648470472454, 0.17598802498120086, -0.11968317719884075, -0.08934791190215441, -0.025918941481873795, 0.0541082920840494, 0.323962456665707, 0.18381557388849712, -0.16051549625266145, -0.1681277062724943, 0.29404606087449686, -0.0036345531432390747, 0.08574052677612994, -0.15448653770255405, 0.17111010549486153, -0.04430587556418609, 0.07568966116303276, -0.19902942465708295, -0.024650036456853607, 0.16996170388187842, 0.1413572574508952, -0.09908874281704473, 0.11590307731471881, -0.0924458117111355, -0.1613228249644096, 0.04029977470698367, -0.17272852385390625, -0.15720218178682147, 0.0464660302078966, 0.10216341508808927], [-0.31526071746676154, 0.15345233609028178, 0.11186855946450346, 0.02743642646571946, -0.10934256368641664, 0.16890402848674455, -0.20744770346213093, 0.12417654559808457, -0.1401189322705528, 0.11317718798125614, -0.17188569282379043, 0.1440265342842533, -0.086057412136923, -0.00030405937684877107, -0.07881885330131227, 0.31795967848267204, -0.1128940866199586, -0.15981934880459164, -0.12149273591649018, -0.1589598535733659, 0.08017603552724771, 0.18444468123077928, 0.15308319958641986, -0.26644420287832377, -0.1649737273715888, -0.15371855107068572, 0.02202615535366949, -0.1476714195061355, 0.3499970900202091, 0.013334740902841268, -0.015551132178895683, 0.047533727928100594, 0.1892499656641577, -0.015684722110016827, -0.16681886121395512, -0.06029981799822437, -0.09169763570980423, -0.1086144032679729, 0.05821869954529132, -0.013313693035859823, -0.23517658296864727, -0.1204543338076942, -0.19935404360636824, -0.01532306233582357, 0.23138969947124396, -0.23002950212954243, -0.2603699672191857, -0.18662301131429263, 0.0590138041989171, -0.16679534180492334, 0.022849665596926385, -0.1870712770654774, -0.1498515075050218, 0.1762627900224485, -0.05871363489140532, -0.007008769284215556, -0.15499662502293307, -0.1090653526042535, 0.09849046356638774, -0.11125430451470604, 0.22154638366990914, 0.09781464938046117, 0.005095203511568813, -0.15775385193091643], [0.18847794313266616, 0.11162968793131112, 0.21915834822314426, -0.20633815093531702, 0.14871405300258553, 0.20122514977080774, -0.2011933783405017, -0.03676537210755145, -0.15414448597968836, 0.1320987882914878, 0.12147390055697577, 0.28740914775632836, 0.09688554265635942, 0.11196949397282861, 0.04488210425835659, -0.13583415906510943, 0.13078463301929596, 0.08220898974161737, -0.059587570628119535, -0.043110499572863024, -0.254530074908649, 0.08866910522737245, 0.06910957924949727, 0.05057416939354953, 0.21413878602611064, 0.14111638323531267, -0.15081696244779347, -0.21611968755016783, -0.3675718015587963, -0.19562634605652912, -0.00994620438401997, -0.032528621131288724, 0.22558491776008313, -0.13130709344032854, 0.26594506015216246, -0.01984617632659738, 0.10567294145814775, -0.11842451851912629, -0.17703302603070628, 0.1732898522613914, -0.0187114367095767, -0.21419762085844055, 0.10413594241377715, 0.060437014104973395, -0.0875079262872893, -0.11939514508286417, 0.1488777702892405, -0.05574438746906532, 0.08268399408359606, -0.1267336321477641, 0.2643304343595202, -0.21605130156737798, 0.014496572723707028, -0.26012452503913597, -0.0260361637548952, 0.10378991825049162, -0.27199320938742483, -0.15747587280484032, 0.053629042152564074, 0.06343439378591864, -0.14035586493603255, 0.024587974764253916, -0.0997372338214063, 0.13838800086886952], [-0.22249700713550524, 0.14193252018332037, 0.057908622881807655, 0.1708423205773943, 0.008344886795554715, 0.13224923184119136, 0.06788916814663669, -0.03408412383512725, -0.3073241947274798, 0.26509887037790153, 0.09320310517073704, -0.06709348289840117, 0.04790142760458058, -0.1780758799684909, 0.047588827041285066, 0.24492414068504528, -0.0030666745363052855, -0.1492031706020149, -0.06900037294570811, -0.170981862490178, -0.08157363379489718, -0.1401951904756, -0.16497341084520245, -0.2580106049816797, -0.03932138741749714, -0.19690816065121503, 0.041694752223806156, 0.13893816994606156, -0.0482858525482833, -0.016584596274688227, -0.06047666026633852, -0.30295747900568687, -0.19439706152834485, 0.2800429110513502, -0.01768732153674043, 0.14669178978812253, -0.302006398310256, 0.13152138040784658, 0.2721141579168746, 0.15892269158666772, -0.3666191864351873, 0.062095400299895555, -0.08627669883518149, 0.23386962061745953, -0.2385245495811445, -0.09613608220183875, 0.1215633940783804, 0.0039129806653082355, 0.030854348019616736, 0.3454721988336682, -0.050886441023093996, -0.2933551198187568, -0.024903708782063407, -0.17502228945341422, -0.1415947362993517, -0.004508752257168913, 0.1929659597952023, 0.011334774056332094, 0.015747609998543195, -0.02984868432959066, 0.05233164315704698, 0.06044636436186459, -0.01931141314460774, 0.2504566683901235]], "b1": [0.008333419319854901, -0.05501739502130595, -0.021931634828131277, -0.009543040174658311, 0.07175320936787682, 0.044551116310878214, -0.022419268372765512, -0.031473325065297965, 0.0026718094767981993, -0.02398353925133917, 0.029391960812318662, 0.03194803150949069, -0.044823177226331466, -0.017614959291260262, 0.017254094023330696, 0.028327423636835273, 0.06712217892604413, 0.024615947640432824, 0.0593626209761476, 0.029249103874602167, 0.03886389277846762, -0.00560810650422425, -0.01631594245948544, 0.03812206980505095, 0.0005623547855261681, 0.029178028849914064, -0.029346967685726633, -0.025239222400401766, 0.015848600590097975, -0.003993714761080147, -0.036238908580139645, -0.023129454535487665, -0.0396354996405092, 0.03385918735623003, 0.06196608362411491, 0.019650592510469852, 0.008205511313932408, 0.02240708550520341, 0.028520546633373715, -0.00022381895418963752, -0.04587484561491894, 0.052945111439715566, 0.044503108162778, 0.03918747667779809, -0.06320738517758649, 0.07350694722415854, 0.03147609208579968, -0.006098788125001404, 0.018822293832365725, 0.03719956578334445, -0.00281600647253306, -0.009705335944387489, 0.03371009989454113, -0.01661602572547155, 0.04457984228449561, 0.0169641493255046, -0.049987472012658074, 0.054269457573253584, -0.020396043282057276, 0.025021844402788835, -0.04886980298309859, -0.023913316610984902, -0.02165059795550151, 0.03930852295075523], "W2": [[0.04138603950829201, -0.16434190683180314], [0.13095088351815634, 0.07024571236870181], [-0.15986483572354707, 0.050793518173554604], [0.3175982599573504, -0.2690579040937754], [-0.01080099505755511, 0.21943305735859397], [0.006178707774528179, -0.1409718974826274], [-0.18386703377717648, -0.04266634415687487], [0.21777431285792934, 0.10884538721058672], [-0.33551247678595586, 0.12409086905116803], [0.38069762312551464, -0.24811149587813247], [-0.2790211335335364, -0.11245800546333741], [0.18436745485273068, 0.30155245158736216], [-0.2558984946393986, -0.06683137406866946], [-0.31378062130180284, 0.017487576235476605], [0.2920172914753925, -0.20392303717921445], [-0.15628524300486435, -0.029345550877771295], [-0.09254064790925037, 0.2250073030690596], [-0.031624137451193725, -0.25078169512923], [-0.1603786849758319, 0.36591406763919415], [0.022521081746337282, -0.21987167736044846], [0.14179255054124484, -0.17805858579754064], [0.21388396890025457, -0.33544370555188513], [0.32007455744257374, -0.24726314818541742], [-0.18293998923023636, 0.09869473121502585], [-0.06433876513934493, -0.15475412521917628], [-0.3426134903725022, -0.11187599728750296], [-0.22119612043045025, -0.22656119079813944], [-0.2378544993866767, -0.01194834345246565], [-0.08151252651031785, 0.05715650899030939], [-0.18085469307635696, -0.35582245253608935], [-0.15660074288850687, 0.13135657776942117], [-0.05560118935810817, -0.13518963442207435], [0.2504458055175532, -0.07686668655171378], [0.25771300157321536, 0.2019097396810457], [-0.23636480796113268, 0.23347637957483816], [-0.19263760678791403, -0.13586671569211184], [-0.16724994182969383, 0.08597155458629728], [0.2764446939992432, -0.2813342351289468], [0.12951098177450593, -0.04004884522940162], [-0.16387530414398252, 0.3421897161978449], [0.07357126957861188, -0.19189659664388206], [0.261065798376708, -0.2397946597841973], [-0.36788228613682383, -0.17058876326526137], [0.2319144843652039, -0.38338749051678234], [0.3321607499225256, 0.11390073743784894], [-0.33449890777319813, 0.004654628783849675], [-0.120790021897292, 0.11979278915850745], [0.06336719169204315, 0.09882969883466053], [0.3561385867908784, -0.134784244631712], [0.11002449472704867, -0.11420239834658114], [0.2461695957341989, 0.3100488762046028], [0.27233182167792575, -0.11608930727601947], [-0.10666919176432899, 0.2843631752627194], [0.33955196981051883, -0.12168697766711548], [0.18789567381465713, -0.09995533776537976], [-0.13778879550486395, 0.18201462577456795], [-0.039932660750850835, -0.11732127531013652], [-0.15580779981505238, -0.13045072885448586], [-0.21138751427421998, -0.28117651078394684], [0.11347937381768773, 0.14902598720004792], [0.1756502112054447, 0.1753900553327356], [-0.07978828860912822, -0.20677558488778985], [-0.08883910417918697, -0.09280569087141592], [0.09256171981812324, -0.008163973824657706]], "b2": [0.06791251442105081, -0.04558110595131512]}